[[[-1.30333915e-01]
  [ 6.13769097e-03]
  [-2.98540771e-01]
  [ 2.62617506e-02]
  [ 2.01676682e-01]
  [-2.04818934e-01]
  [ 3.15067917e-01]
  [-5.67162707e-02]
  [-5.13720475e-02]]

 [[ 2.00737387e-01]
  [ 4.58907157e-01]
  [-5.74756153e-02]
  [-6.49945199e-01]
  [-5.41990697e-01]
  [ 1.66550666e-01]
  [ 3.49662863e-02]
  [ 2.12752581e-01]
  [ 5.41891098e-01]]

 [[ 2.23193735e-01]
  [ 8.33284929e-02]
  [ 1.64491028e-01]
  [ 3.30439299e-01]
  [ 2.72750556e-01]
  [ 1.74294397e-01]
  [-7.34037384e-02]
  [ 2.95288980e-01]
  [ 2.06678420e-01]]

 [[-4.23593670e-02]
  [-2.18550742e-01]
  [ 8.95560533e-02]
  [-2.27505285e-02]
  [ 6.66648448e-01]
  [-1.37441742e+00]
  [-2.85271734e-01]
  [-2.12896224e-02]
  [-2.46788099e-01]]

 [[-6.57048464e-01]
  [-4.97625500e-01]
  [ 1.31375074e-01]
  [ 1.35334462e-01]
  [-4.99978244e-01]
  [-7.28187084e-01]
  [ 1.81205980e-02]
  [-6.89240217e-01]
  [-6.43185019e-01]]

 [[ 2.37537529e-02]
  [-1.23760089e-01]
  [ 5.35699613e-02]
  [-3.32783997e-01]
  [-1.15766513e+00]
  [ 3.85542840e-01]
  [ 3.60163838e-01]
  [ 1.07684925e-01]
  [-1.69378966e-01]]

 [[ 3.10264528e-01]
  [-7.35555947e-01]
  [ 6.84323013e-02]
  [-8.43314379e-02]
  [ 8.73880554e-03]
  [-7.59709179e-01]
  [ 2.97290981e-01]
  [ 2.85578012e-01]
  [-7.35886574e-01]]

 [[ 2.33442988e-02]
  [ 3.43354158e-02]
  [ 8.01953604e-04]
  [-4.98361960e-02]
  [ 2.77449310e-01]
  [ 5.93972392e-02]
  [ 4.24431849e+00]
  [-7.53296614e-02]
  [-4.98738140e-02]]

 [[ 5.82832471e-02]
  [ 1.20207563e-01]
  [ 1.49481520e-01]
  [ 3.30826193e-01]
  [-4.63815689e-01]
  [-5.57079762e-02]
  [-1.10355690e-01]
  [-3.54132019e-02]
  [-4.17199470e-02]]

 [[ 5.41494966e-01]
  [ 2.05484658e-01]
  [-4.77718413e-02]
  [ 2.50935312e-02]
  [ 1.29218340e-01]
  [-1.28322613e+00]
  [ 3.65734249e-02]
  [ 4.95110571e-01]
  [ 8.10638219e-02]]

 [[-9.68584493e-02]
  [-4.02498513e-01]
  [ 2.68977672e-01]
  [ 1.68365121e-01]
  [-4.13242996e-01]
  [ 3.88969988e-01]
  [ 1.28012046e-01]
  [-1.11324355e-01]
  [-5.20717800e-01]]

 [[-6.29979074e-01]
  [ 1.67799786e-01]
  [-3.89175974e-02]
  [-7.03812361e-01]
  [-3.43951225e-01]
  [-1.80355877e-01]
  [ 2.34564971e-02]
  [-6.46263242e-01]
  [ 1.03032803e-02]]

 [[-8.24239478e-02]
  [ 1.00314103e-01]
  [ 1.50396377e-02]
  [ 2.92535126e-01]
  [ 2.16266602e-01]
  [-4.53217179e-02]
  [-6.91617886e-03]
  [-1.54926285e-01]
  [ 6.36055246e-02]]

 [[-5.76920688e-01]
  [ 1.28936648e-01]
  [ 6.21057712e-02]
  [ 6.86608851e-02]
  [ 1.25795507e+00]
  [-2.16122299e-01]
  [ 4.67702709e-02]
  [-6.69322968e-01]
  [ 6.10109866e-02]]

 [[ 7.79613480e-02]
  [-5.92386611e-02]
  [-4.74470407e-02]
  [-6.74288630e-01]
  [-1.62583828e-01]
  [ 3.39071713e-02]
  [-2.10475788e-01]
  [ 9.62656587e-02]
  [ 5.14134094e-02]]

 [[-3.80253009e-02]
  [-5.37975598e-03]
  [ 1.92156783e-03]
  [-3.44175007e-03]
  [-9.52955987e-03]
  [ 5.81498491e-03]
  [ 2.96451598e-02]
  [ 5.87694608e-02]
  [-1.45881362e-02]]

 [[-3.23027790e-01]
  [-1.58001065e-01]
  [ 8.99007842e-02]
  [-4.67436910e-02]
  [-3.70326728e-01]
  [ 5.35042107e-01]
  [-5.64579368e-01]
  [-3.18047792e-01]
  [-1.33049101e-01]]

 [[ 5.54287612e-01]
  [ 4.33333009e-01]
  [ 5.82316518e-03]
  [ 8.46667588e-02]
  [-1.39552844e+00]
  [-2.36890838e-01]
  [-3.31244606e-04]
  [ 4.86153215e-01]
  [ 3.65540862e-01]]

 [[-7.22328499e-02]
  [-3.04371938e-02]
  [-1.00552188e-02]
  [-1.79405406e-01]
  [-1.85388643e-02]
  [ 3.05415411e-02]
  [-3.64132810e+00]
  [ 4.10033343e-03]
  [ 1.29868284e-01]]

 [[ 2.03529388e-01]
  [-1.76518276e-01]
  [-1.02685317e-02]
  [-5.97998261e-01]
  [ 1.10171223e+00]
  [ 1.54847369e-01]
  [-1.86960902e-02]
  [ 3.14591438e-01]
  [-3.33933085e-01]]

 [[-1.94110855e-01]
  [ 1.89279881e-03]
  [ 3.20501119e-01]
  [ 8.98561999e-02]
  [ 1.05130076e+00]
  [ 4.04419154e-01]
  [ 1.19831473e-01]
  [-2.23335117e-01]
  [-5.46540171e-02]]

 [[-1.88315049e-01]
  [ 3.92236114e-01]
  [ 2.04039395e-01]
  [-6.41783595e-01]
  [ 4.73264724e-01]
  [-6.42103672e-01]
  [-2.04852149e-01]
  [-2.91764200e-01]
  [ 3.50655615e-01]]

 [[-2.82166488e-02]
  [ 7.90411606e-03]
  [ 1.61555205e-02]
  [ 3.29235345e-01]
  [-1.21059842e-01]
  [ 5.18763438e-02]
  [-6.25285506e-02]
  [ 9.09828171e-02]
  [-2.31542662e-02]]

 [[ 7.37990558e-01]
  [ 4.67492431e-01]
  [ 1.23824321e-01]
  [ 1.09590001e-01]
  [ 5.29788017e-01]
  [ 7.45262086e-01]
  [-3.18986401e-02]
  [ 6.59746408e-01]
  [ 4.45962787e-01]]

 [[-4.09586668e-01]
  [ 2.36323223e-01]
  [ 3.22100252e-01]
  [-5.57151735e-02]
  [ 1.10502653e-01]
  [ 8.28928590e-01]
  [ 1.18592389e-01]
  [-3.35035801e-01]
  [ 2.04839274e-01]]

 [[ 5.12646854e-01]
  [-1.84111938e-01]
  [-4.05315571e-02]
  [-2.54871130e-01]
  [-9.47847784e-01]
  [ 2.43205220e-01]
  [ 1.79486483e-01]
  [ 4.78562862e-01]
  [-3.61969993e-02]]

 [[ 1.26093790e-01]
  [ 1.67927548e-01]
  [ 1.18960394e-02]
  [-1.08320773e+00]
  [ 3.46305698e-01]
  [ 3.52363765e-01]
  [ 1.52394861e-01]
  [ 1.38848215e-01]
  [ 1.96467921e-01]]

 [[-4.11650509e-01]
  [ 2.25280598e-01]
  [-4.25783657e-02]
  [ 1.24700189e-01]
  [-3.83355916e-02]
  [-1.34250569e+00]
  [-1.94572821e-01]
  [-4.60250914e-01]
  [ 1.90080687e-01]]

 [[ 1.67353481e-01]
  [-2.54005641e-01]
  [-1.85839478e-02]
  [ 1.94973033e-02]
  [-1.67847359e+00]
  [-3.09681207e-01]
  [-4.47747633e-02]
  [ 2.98965033e-02]
  [-2.80153871e-01]]

 [[ 2.70743281e-01]
  [ 3.70691419e-01]
  [ 1.82063133e-01]
  [ 1.16961174e-01]
  [-9.88098323e-01]
  [-5.65976322e-01]
  [ 5.51628023e-02]
  [ 2.93487906e-01]
  [ 3.46972436e-01]]

 [[-3.38372961e-02]
  [-7.82600939e-02]
  [-2.06994474e-01]
  [ 4.86947224e-03]
  [-9.32252929e-02]
  [ 3.18162609e-03]
  [ 2.23025039e-01]
  [-5.00529222e-02]
  [-4.54865620e-02]]

 [[ 2.14862853e-01]
  [ 1.04319178e-01]
  [-3.27446461e-02]
  [-6.30135238e-02]
  [ 1.34935939e+00]
  [ 3.87565270e-02]
  [ 2.37383157e-01]
  [ 1.57673478e-01]
  [ 1.28461093e-01]]

 [[ 1.24959625e-01]
  [ 4.04116899e-01]
  [ 2.09863554e-03]
  [ 3.93600995e-03]
  [ 1.34567213e+00]
  [ 7.97377229e-01]
  [-1.77963778e-01]
  [ 8.93032923e-02]
  [ 4.71809328e-01]]

 [[-8.35056305e-02]
  [-4.75662857e-01]
  [-5.87752722e-02]
  [-5.87826192e-01]
  [-2.57172048e-01]
  [-3.48997742e-01]
  [ 5.21468073e-02]
  [ 3.03824339e-03]
  [-5.81657767e-01]]

 [[ 7.09569678e-02]
  [ 6.31604135e-01]
  [ 5.72611168e-02]
  [ 2.99145859e-02]
  [-3.65699083e-01]
  [-1.22946227e+00]
  [ 5.16312793e-02]
  [ 2.20797285e-02]
  [ 6.27399504e-01]]

 [[ 7.57785887e-02]
  [-3.78346518e-02]
  [ 3.60128772e-03]
  [ 1.09725451e+00]
  [ 1.96070317e-02]
  [ 4.52993326e-02]
  [ 6.29663328e-03]
  [-5.77981770e-02]
  [ 1.74231920e-02]]

 [[-2.86093773e-03]
  [ 1.59176841e-01]
  [ 2.64038920e-01]
  [ 8.10485110e-02]
  [ 1.26692757e-01]
  [-3.32045138e-01]
  [-3.28385979e-01]
  [-1.45653069e-01]
  [ 1.68062434e-01]]

 [[-2.56073289e-02]
  [-6.51118457e-01]
  [ 6.65220842e-02]
  [ 4.97181565e-02]
  [ 9.48740616e-02]
  [ 1.40116024e+00]
  [ 1.02195861e-02]
  [-1.05086446e-01]
  [-6.19822741e-01]]

 [[-4.90043908e-01]
  [-5.05939126e-01]
  [-1.96140707e-02]
  [ 7.04958215e-02]
  [ 4.93459284e-01]
  [ 1.24201179e+00]
  [ 3.69877070e-02]
  [-5.39217651e-01]
  [-5.89822412e-01]]

 [[ 5.27731657e-01]
  [ 7.54192248e-02]
  [ 1.16115481e-01]
  [ 8.77902508e-02]
  [-8.93276393e-01]
  [-8.69381800e-02]
  [ 4.39085305e-01]
  [ 3.91617656e-01]
  [ 1.12751938e-01]]

 [[-1.54183060e-01]
  [-2.45664746e-01]
  [-2.24851891e-01]
  [ 4.98992279e-02]
  [ 5.58152795e-01]
  [ 6.90223396e-01]
  [ 2.29832336e-01]
  [-1.74096391e-01]
  [-2.17707515e-01]]

 [[ 6.00989103e-01]
  [ 4.77761440e-02]
  [ 1.42797053e-01]
  [-3.18804353e-01]
  [-1.25661373e+00]
  [-2.28017926e-01]
  [-1.45221129e-01]
  [ 6.91498041e-01]
  [ 1.82842866e-01]]

 [[ 6.28866911e-01]
  [ 2.67140388e-01]
  [ 2.92342186e-01]
  [ 1.66144397e-03]
  [ 1.47400796e-01]
  [ 1.18849345e-01]
  [ 1.31651342e-01]
  [ 6.54970467e-01]
  [ 2.43824691e-01]]

 [[ 1.92023143e-01]
  [-4.46976900e-01]
  [ 2.41107285e-01]
  [ 2.79428787e-03]
  [-2.61936605e-01]
  [ 7.70533800e-01]
  [-2.47614652e-01]
  [ 6.40501380e-02]
  [-3.53045255e-01]]

 [[ 3.91368717e-01]
  [ 1.97224263e-02]
  [-3.07313979e-01]
  [ 2.33904138e-01]
  [ 2.23091125e-01]
  [ 1.74161550e-02]
  [-5.66906817e-02]
  [ 4.10503626e-01]
  [ 6.78065568e-02]]

 [[-4.93958890e-02]
  [ 4.47689712e-01]
  [ 1.14155054e-01]
  [-2.57825941e-01]
  [ 1.44501299e-01]
  [ 1.45552218e-01]
  [-3.86141062e-01]
  [ 9.85390916e-02]
  [ 3.63459140e-01]]

 [[-6.29577398e-01]
  [ 2.84687549e-01]
  [-4.08369973e-02]
  [ 1.34344492e-02]
  [-2.80426562e-01]
  [ 1.22578025e+00]
  [-8.02496299e-02]
  [-6.21338546e-01]
  [ 3.20172399e-01]]

 [[-1.33594200e-02]
  [ 5.66205382e-01]
  [-7.65402988e-02]
  [ 2.41753012e-02]
  [ 3.45237136e-01]
  [-7.95078158e-01]
  [ 9.10123140e-02]
  [-1.22781329e-01]
  [ 5.54771960e-01]]

 [[ 2.16903135e-01]
  [-6.74306393e-01]
  [-6.48547634e-02]
  [ 7.51147196e-02]
  [-1.21282980e-01]
  [-2.77767982e-02]
  [ 1.01817772e-01]
  [ 5.53175434e-02]
  [-7.68712878e-01]]

 [[ 1.13849379e-01]
  [-3.10611963e-01]
  [ 1.62298739e-01]
  [-4.28491026e-01]
  [ 4.47760254e-01]
  [-6.67410135e-01]
  [ 1.10659443e-01]
  [ 2.07434192e-01]
  [-3.74892145e-01]]

 [[ 5.82451783e-02]
  [-4.97251600e-01]
  [ 3.33029658e-01]
  [ 8.24498907e-02]
  [-5.40740728e-01]
  [-3.65203340e-03]
  [ 1.13389611e-01]
  [ 2.55759619e-02]
  [-6.20576024e-01]]

 [[-2.05904290e-01]
  [-2.93620944e-01]
  [ 2.83130035e-02]
  [ 3.71249504e-02]
  [-1.23153996e+00]
  [ 8.20384383e-01]
  [ 1.19098872e-01]
  [-1.66623384e-01]
  [-2.64837325e-01]]

 [[-1.52059659e-01]
  [-3.72214258e-01]
  [ 4.80174012e-02]
  [ 2.87735909e-01]
  [ 1.71574011e-01]
  [-1.56248817e-02]
  [ 1.13016809e-03]
  [-1.70987457e-01]
  [-4.22368348e-01]]

 [[-4.46719497e-01]
  [-5.03718145e-02]
  [ 1.43611178e-01]
  [-3.35832387e-01]
  [-7.77109802e-01]
  [-3.11742544e-01]
  [-2.15605809e-03]
  [-4.98888493e-01]
  [ 7.25208297e-02]]

 [[ 3.73187065e-02]
  [ 4.45260495e-01]
  [ 6.54079989e-02]
  [ 1.26974946e-02]
  [ 7.11032525e-02]
  [ 1.37800896e+00]
  [ 1.95757300e-01]
  [-8.40529948e-02]
  [ 4.71536368e-01]]

 [[ 1.37025326e-01]
  [-7.18179494e-02]
  [ 3.00359842e-03]
  [ 2.44560674e-01]
  [-2.66711563e-01]
  [-1.23740919e-02]
  [ 5.90474228e-04]
  [ 1.93127558e-01]
  [ 5.97006939e-02]]

 [[ 4.97111350e-01]
  [-5.19581199e-01]
  [ 1.60805508e-01]
  [ 1.51499465e-01]
  [ 7.19042778e-01]
  [-7.60732114e-01]
  [-5.06036989e-02]
  [ 4.76143450e-01]
  [-4.95491058e-01]]

 [[-5.00758231e-01]
  [-2.44519129e-01]
  [ 1.64912626e-01]
  [-5.23970068e-01]
  [ 9.63804722e-01]
  [ 5.42652249e-01]
  [-1.80659831e-01]
  [-4.38555866e-01]
  [-2.89855272e-01]]

 [[ 2.13246774e-02]
  [-8.67081210e-02]
  [-8.89339298e-02]
  [-3.56239110e-01]
  [-8.11256189e-03]
  [-6.25822134e-03]
  [-3.02613135e-02]
  [-5.54797389e-02]
  [ 7.17617720e-02]]

 [[ 4.37829411e-03]
  [-6.56401515e-02]
  [-1.71500042e-01]
  [-1.67624187e-02]
  [ 8.27374458e-02]
  [ 6.36528358e-02]
  [-2.98516244e-01]
  [-1.18446730e-01]
  [ 2.11072918e-02]]

 [[-2.02543605e-02]
  [-2.30460390e-02]
  [-5.07974532e-03]
  [-8.84056929e-03]
  [ 4.38655429e-02]
  [-1.03073232e-02]
  [ 5.87515766e-04]
  [ 3.20741870e-02]
  [-7.73520097e-02]]

 [[-1.38383964e-03]
  [-5.58709726e-03]
  [-4.16951142e-02]
  [ 2.57508606e-01]
  [ 1.32000849e-01]
  [-5.84484264e-02]
  [-1.24129243e-02]
  [-1.11026302e-01]
  [ 6.11373633e-02]]

 [[ 6.17300928e-01]
  [-2.31048048e-01]
  [ 2.62344256e-02]
  [ 2.86038052e-02]
  [-1.50707591e+00]
  [ 6.64680302e-01]
  [-8.78015533e-02]
  [ 6.45602107e-01]
  [-2.55899936e-01]]

 [[-6.03480816e-01]
  [ 5.55546820e-01]
  [ 1.62008718e-01]
  [ 2.64301598e-01]
  [-3.45674217e-01]
  [ 2.84742028e-01]
  [-5.19010387e-02]
  [-5.93776107e-01]
  [ 5.59626281e-01]]]
