[0.02382939],[0.20517679],[-0.01748117],[0.02706195],[-1.6168737],[0.95357215],[-0.08511886],[0.09745109],[0.14765593]
[0.28452954],[0.18636984],[-0.07131734],[-0.6554192],[-0.524433],[-0.40948173],[-0.06002573],[0.29654172],[0.26934105]
[0.04136767],[-0.08648948],[0.10081237],[0.33256885],[0.3090101],[-0.01205738],[-0.03646516],[0.11346094],[0.0368576]
[-0.00877102],[-0.35279873],[0.08964539],[-0.01977383],[1.0063573],[-1.1170064],[-0.25722075],[0.01229807],[-0.38102257]
[-0.7269344],[-0.38260314],[0.12450204],[0.14219691],[0.0283432],[-0.8179442],[0.02562483],[-0.7591207],[-0.5281157]
[0.24006183],[0.12332924],[0.03668039],[-0.31998357],[-1.3114336],[-0.05058361],[0.29125866],[0.32398182],[0.07772255]
[0.59895986],[-0.4879879],[0.17729327],[-0.04446504],[-0.44094893],[-0.58304703],[0.19230591],[0.57429135],[-0.48832232]
[0.03686558],[0.04553093],[-0.00231185],[-0.04930132],[0.1740313],[-0.03701658],[3.621194],[-0.06180355],[-0.03867461]
[-0.13209897],[-0.19875865],[0.23207462],[0.23585959],[-0.36661005],[0.1157893],[-0.1770517],[-0.2258114],[-0.36071515]
[0.66312844],[0.37943304],[-0.05639381],[0.02204268],[-1.0284127],[0.13509503],[0.07893994],[0.6167781],[0.25499675]
[0.22374897],[-0.3848197],[0.17352946],[0.09941563],[-0.17146565],[1.2101761],[0.04376269],[0.20927331],[-0.5029949]
[-0.59190464],[0.0256351],[0.05984889],[-0.40571657],[-0.8772006],[-0.19295402],[0.0116242],[-0.6082015],[-0.13184667]
[-0.04092562],[0.0474095],[0.03225466],[0.31668591],[0.00858114],[-0.03615331],[-0.0198071],[-0.11342879],[0.01070546]
[-0.5134674],[0.13934968],[0.05869739],[0.06521226],[1.2240888],[-0.22298191],[0.0386498],[-0.605943],[0.07141043]
[-0.5140777],[0.14054915],[-0.05401286],[-0.64868426],[-0.15724528],[0.18606257],[0.01237298],[-0.4957777],[0.25116953]
[-0.06620292],[0.00821489],[0.00308851],[-0.05348669],[0.01665496],[-0.00394796],[0.09671908],[0.0305752],[-0.00099363]
[-0.35747045],[0.22625798],[0.12429716],[-0.01420227],[0.28444955],[0.13994987],[-0.48711643],[-0.35246837],[0.251162]
[0.6464245],[0.29471645],[0.00013398],[0.14794947],[-1.1304059],[-0.7400439],[0.19837853],[0.5782928],[0.22692908]
[-0.04682544],[-0.10366528],[-0.00959614],[-0.1652918],[-0.03015759],[0.00344922],[-3.4537425],[0.0295106],[0.05664603]
[0.28603947],[0.10002964],[-0.01395147],[-0.53396577],[1.0606507],[-0.1663888],[-0.00306606],[0.39711666],[-0.05736444]
[-0.08128349],[-0.0686107],[0.6344536],[0.13444203],[-0.2042496],[-0.06070616],[0.07707749],[-0.11049907],[-0.12514782]
[-0.26409176],[-0.05777329],[0.18848854],[-0.77851605],[0.7353121],[0.16315119],[-0.21462063],[-0.36757168],[-0.09937233]
[-0.02433379],[0.04297614],[0.01326797],[0.30006665],[-0.3349532],[-0.11013398],[-0.0507491],[0.09486098],[0.01191646]
[0.14848928],[0.17058094],[0.03582602],[0.01051958],[1.1892263],[1.1783973],[-0.1400542],[0.07025696],[0.14904925]
[-0.46495917],[0.35134417],[0.29708675],[-0.11718991],[0.01849448],[0.710228],[0.10751192],[-0.39039534],[0.3198479]
[0.32328123],[-0.5317537],[-0.02648769],[-0.26071647],[0.07829348],[1.0186929],[0.1813263],[0.28919244],[-0.38385653]
[0.5884443],[0.19979008],[0.23460026],[-0.2408422],[0.30896354],[0.06054592],[0.12972125],[0.6011949],[0.22833131]
[-0.48786747],[-0.12225994],[-0.08976957],[0.08095541],[-0.64708793],[-1.1273649],[-0.26063278],[-0.53653294],[-0.1574664]
[0.4293653],[-0.32464764],[2.6013933e-05],[-0.3847778],[-1.3089874],[0.31613964],[-0.22065862],[0.2918931],[-0.3507748]
[0.17559235],[0.40395853],[0.24079083],[0.1601185],[-0.7494163],[-0.8266972],[0.02664341],[0.19831944],[0.38026795]
[-0.2554144],[0.03963215],[-0.19223803],[0.03020201],[0.1869147],[-0.15081774],[0.18318993],[-0.27166805],[0.07240591]
[0.03023894],[0.27330616],[-0.04259638],[-1.0534965],[0.37160605],[-0.11114702],[0.15994875],[-0.02694983],[0.29747397]
[-0.29540488],[0.58982426],[-0.03218728],[0.07015727],[1.0609101],[-0.641847],[0.03427415],[-0.33108467],[0.6575352]
[-0.03093933],[-0.40924275],[-0.05251091],[-0.56987363],[-0.19980949],[-0.5756824],[0.05292775],[0.05559881],[-0.51516575]
[0.00880598],[0.604077],[0.05559425],[0.01153705],[-0.7051121],[-1.1150687],[-0.01825545],[-0.04007181],[0.59981877]
[0.0359405],[-0.06490806],[0.03953252],[0.56211317],[0.13150725],[0.06947277],[-0.00288421],[-0.09763365],[-0.00965792]
[0.06616412],[0.03937543],[0.2779753],[0.05517047],[-0.00908538],[-0.10568145],[-0.35620564],[-0.07662821],[0.04825236]
[0.00557439],[-0.6006341],[0.08089316],[0.06763973],[-0.27981895],[1.2751589],[0.1098191],[-0.07390913],[-0.5692996]
[-0.3339466],[-0.5322656],[0.00455894],[0.06824967],[0.58497995],[1.4909892],[-0.07243004],[-0.38305965],[-0.61607236]
[0.26542976],[0.2457987],[0.13012654],[0.12701394],[-0.5600199],[-0.34916982],[0.48024374],[0.1292993],[0.2831337]
[-0.12477549],[-0.22748236],[-0.15005845],[0.04511491],[0.6575701],[0.70572793],[0.1682999],[-0.14468434],[-0.19951029]
[0.37474313],[0.13770555],[0.24479865],[-0.5135854],[-0.80170083],[-0.42092472],[-0.24899712],[0.46525392],[0.27273756]
[0.25424844],[0.23285306],[0.12582548],[0.05943395],[1.2849984],[0.80422086],[0.06665634],[0.2804167],[0.20953803]
[0.50013036],[-0.13648747],[0.28706113],[-0.00086666],[-0.8709362],[0.17852634],[-0.28725722],[0.37221426],[-0.04254177]
[0.3549773],[-0.08476374],[-0.3810883],[0.16299343],[0.31736434],[0.08629317],[-0.02807119],[0.37414214],[-0.03667127]
[-0.0433206],[0.49375728],[0.10947691],[-0.7096533],[0.22514966],[-0.5098828],[-0.21765798],[0.1046138],[0.40955555]
[-0.744385],[0.00462185],[0.04888126],[0.08951459],[-0.42757097],[1.0491619],[0.12272847],[-0.73614407],[0.04007948]
[-0.02813649],[0.423177],[-0.10540708],[0.02844259],[-0.16403553],[-0.88651],[0.1171284],[-0.13756026],[0.41175345]
[0.10342644],[-0.44350383],[-0.08714578],[0.02610239],[0.41488096],[0.2988249],[0.08796767],[-0.05816063],[-0.53792924]
[-0.15261842],[-0.50875956],[0.11946076],[-0.46643245],[0.4687602],[-0.42733297],[0.03800428],[-0.05903767],[-0.57311696]
[0.70462203],[0.19838703],[0.09502679],[0.14538127],[-1.0127763],[0.25290328],[-0.06976343],[0.67197025],[0.07509864]
[-0.01301323],[-0.30939814],[0.00873837],[0.01481805],[-1.5873181],[-0.19077773],[0.04121181],[0.02625846],[-0.280618]
[-0.09004245],[-0.43646893],[0.03755521],[0.2808939],[0.07098695],[-0.27171722],[0.0203412],[-0.10896797],[-0.48661628]
[-0.41674158],[-0.4285683],[0.35958055],[-0.03136929],[-0.12350869],[-0.39325106],[0.13475056],[-0.4690271],[-0.30567494]
[0.03043964],[0.42183468],[0.02647701],[-0.0093412],[0.09322107],[1.467587],[0.25154155],[-0.09093338],[0.44817144]
[0.03191137],[-0.02990942],[-0.00160174],[0.23680595],[0.04895959],[0.05732337],[-0.01046978],[0.08801466],[0.10161778]
[0.48786226],[-0.64023197],[0.13075764],[0.139663],[0.7328025],[-0.686481],[0.02199143],[0.46692085],[-0.61617506]
[0.15729482],[0.48414606],[0.04972277],[-0.33342123],[-0.34866855],[1.0572734],[-0.02270887],[0.21957994],[0.43879896]
[0.07667697],[-0.11545102],[-0.08308679],[-0.36999494],[-0.08749159],[0.0365047],[-0.04120984],[-0.00013179],[0.04300747]
[0.01186659],[-0.04942561],[-0.14682013],[0.00082578],[0.07524893],[0.03044306],[-0.27447075],[-0.11096059],[0.03733015]
[-0.31332323],[-0.2805516],[-0.00603021],[-0.41165605],[0.95891565],[1.043165],[-0.19690934],[-0.2609849],[-0.3348643]
[-0.00813583],[-0.03928224],[-0.05257308],[0.28400528],[0.13959028],[0.00719885],[-0.01496423],[-0.11777616],[0.02744694]
[0.5177579],[-0.44288003],[0.01604018],[0.05309927],[-1.1850101],[1.1595886],[-0.07428486],[0.54606676],[-0.4677535]
[-0.38521883],[0.7297721],[0.15136279],[0.27887198],[-0.03019145],[0.00116726],[-0.06222202],[-0.37553728],[0.7338614]
